digraph Tree {
node [shape=box, style="filled, rounded", color="black", fontname="helvetica"] ;
edge [fontname="helvetica"] ;
0 [label="RtoL <= 0.021\ngini = 0.491\nsamples = 42603\nvalue = [24132, 18471]\nclass = [", fillcolor="#f9e1d1"] ;
1 [label="StoR <= 0.063\ngini = 0.191\nsamples = 25254\nvalue = [22547, 2707]\nclass = [", fillcolor="#e89051"] ;
0 -> 1 [labeldistance=2.5, labelangle=45, headlabel="True"] ;
2 [label="StoS <= 0.188\ngini = 0.038\nsamples = 20437\nvalue = [20046, 391]\nclass = [", fillcolor="#e6833d"] ;
1 -> 2 ;
3 [label="SampEn <= 0.229\ngini = 0.024\nsamples = 19837\nvalue = [19601, 236]\nclass = [", fillcolor="#e5833b"] ;
2 -> 3 ;
4 [label="StoS <= 0.146\ngini = 0.006\nsamples = 17808\nvalue = [17755, 53]\nclass = [", fillcolor="#e5813a"] ;
3 -> 4 ;
5 [label="gini = 0.003\nsamples = 16583\nvalue = [16560, 23]\nclass = [", fillcolor="#e58139"] ;
4 -> 5 ;
6 [label="gini = 0.048\nsamples = 1225\nvalue = [1195, 30]\nclass = [", fillcolor="#e6843e"] ;
4 -> 6 ;
7 [label="StoS <= 0.104\ngini = 0.164\nsamples = 2029\nvalue = [1846, 183]\nclass = [", fillcolor="#e88d4d"] ;
3 -> 7 ;
8 [label="gini = 0.062\nsamples = 1603\nvalue = [1552, 51]\nclass = [", fillcolor="#e68540"] ;
7 -> 8 ;
9 [label="gini = 0.428\nsamples = 426\nvalue = [294, 132]\nclass = [", fillcolor="#f1ba92"] ;
7 -> 9 ;
10 [label="STD <= 0.006\ngini = 0.383\nsamples = 600\nvalue = [445, 155]\nclass = [", fillcolor="#eead7e"] ;
2 -> 10 ;
11 [label="Volatility <= 0.0\ngini = 0.014\nsamples = 146\nvalue = [145, 1]\nclass = [", fillcolor="#e5823a"] ;
10 -> 11 ;
12 [label="gini = 0.0\nsamples = 135\nvalue = [135, 0]\nclass = [", fillcolor="#e58139"] ;
11 -> 12 ;
13 [label="gini = 0.165\nsamples = 11\nvalue = [10, 1]\nclass = [", fillcolor="#e88e4d"] ;
11 -> 13 ;
14 [label="ShEn <= 0.572\ngini = 0.448\nsamples = 454\nvalue = [300, 154]\nclass = [", fillcolor="#f2c29f"] ;
10 -> 14 ;
15 [label="gini = 0.499\nsamples = 99\nvalue = [47, 52]\nclass = 0", fillcolor="#ecf6fc"] ;
14 -> 15 ;
16 [label="gini = 0.41\nsamples = 355\nvalue = [253, 102]\nclass = [", fillcolor="#efb489"] ;
14 -> 16 ;
17 [label="AppEn <= 0.606\ngini = 0.499\nsamples = 4817\nvalue = [2501, 2316]\nclass = [", fillcolor="#fdf6f0"] ;
1 -> 17 ;
18 [label="StoS <= 0.063\ngini = 0.447\nsamples = 3555\nvalue = [2358, 1197]\nclass = [", fillcolor="#f2c19e"] ;
17 -> 18 ;
19 [label="AppEn <= 0.51\ngini = 0.243\nsamples = 1534\nvalue = [1317, 217]\nclass = [", fillcolor="#e9965a"] ;
18 -> 19 ;
20 [label="gini = 0.19\nsamples = 1311\nvalue = [1172, 139]\nclass = [", fillcolor="#e89050"] ;
19 -> 20 ;
21 [label="gini = 0.455\nsamples = 223\nvalue = [145, 78]\nclass = [", fillcolor="#f3c5a4"] ;
19 -> 21 ;
22 [label="Volatility <= 0.008\ngini = 0.5\nsamples = 2021\nvalue = [1041, 980]\nclass = [", fillcolor="#fdf8f3"] ;
18 -> 22 ;
23 [label="gini = 0.464\nsamples = 1040\nvalue = [381, 659]\nclass = 0", fillcolor="#abd6f4"] ;
22 -> 23 ;
24 [label="gini = 0.44\nsamples = 981\nvalue = [660, 321]\nclass = [", fillcolor="#f2be99"] ;
22 -> 24 ;
25 [label="SampEn <= 0.785\ngini = 0.201\nsamples = 1262\nvalue = [143, 1119]\nclass = 0", fillcolor="#52aae8"] ;
17 -> 25 ;
26 [label="LtoR <= 0.104\ngini = 0.395\nsamples = 273\nvalue = [74, 199]\nclass = 0", fillcolor="#83c1ef"] ;
25 -> 26 ;
27 [label="gini = 0.356\nsamples = 259\nvalue = [60, 199]\nclass = 0", fillcolor="#75bbed"] ;
26 -> 27 ;
28 [label="gini = 0.0\nsamples = 14\nvalue = [14, 0]\nclass = [", fillcolor="#e58139"] ;
26 -> 28 ;
29 [label="CoefVar <= 0.416\ngini = 0.13\nsamples = 989\nvalue = [69, 920]\nclass = 0", fillcolor="#48a4e7"] ;
25 -> 29 ;
30 [label="gini = 0.123\nsamples = 985\nvalue = [65, 920]\nclass = 0", fillcolor="#47a4e7"] ;
29 -> 30 ;
31 [label="gini = 0.0\nsamples = 4\nvalue = [4, 0]\nclass = [", fillcolor="#e58139"] ;
29 -> 31 ;
32 [label="SampEn <= 0.315\ngini = 0.166\nsamples = 17349\nvalue = [1585, 15764]\nclass = 0", fillcolor="#4da7e8"] ;
0 -> 32 [labeldistance=2.5, labelangle=-45, headlabel="False"] ;
33 [label="Range <= 0.358\ngini = 0.46\nsamples = 799\nvalue = [512, 287]\nclass = [", fillcolor="#f4c8a8"] ;
32 -> 33 ;
34 [label="CoefVar <= 0.08\ngini = 0.436\nsamples = 343\nvalue = [110, 233]\nclass = 0", fillcolor="#96cbf1"] ;
33 -> 34 ;
35 [label="CoefVar <= 0.075\ngini = 0.175\nsamples = 62\nvalue = [56, 6]\nclass = [", fillcolor="#e88e4e"] ;
34 -> 35 ;
36 [label="gini = 0.041\nsamples = 48\nvalue = [47, 1]\nclass = [", fillcolor="#e6843d"] ;
35 -> 36 ;
37 [label="gini = 0.459\nsamples = 14\nvalue = [9, 5]\nclass = [", fillcolor="#f3c7a7"] ;
35 -> 37 ;
38 [label="SampEn <= 0.195\ngini = 0.31\nsamples = 281\nvalue = [54, 227]\nclass = 0", fillcolor="#68b4eb"] ;
34 -> 38 ;
39 [label="gini = 0.498\nsamples = 62\nvalue = [29, 33]\nclass = 0", fillcolor="#e7f3fc"] ;
38 -> 39 ;
40 [label="gini = 0.202\nsamples = 219\nvalue = [25, 194]\nclass = 0", fillcolor="#53aae8"] ;
38 -> 40 ;
41 [label="RtoR <= 0.646\ngini = 0.209\nsamples = 456\nvalue = [402, 54]\nclass = [", fillcolor="#e89254"] ;
33 -> 41 ;
42 [label="Range <= 0.614\ngini = 0.491\nsamples = 99\nvalue = [56, 43]\nclass = [", fillcolor="#f9e2d1"] ;
41 -> 42 ;
43 [label="gini = 0.481\nsamples = 67\nvalue = [27, 40]\nclass = 0", fillcolor="#bfdff7"] ;
42 -> 43 ;
44 [label="gini = 0.17\nsamples = 32\nvalue = [29, 3]\nclass = [", fillcolor="#e88e4d"] ;
42 -> 44 ;
45 [label="StoS <= 0.229\ngini = 0.06\nsamples = 357\nvalue = [346, 11]\nclass = [", fillcolor="#e6853f"] ;
41 -> 45 ;
46 [label="gini = 0.055\nsamples = 356\nvalue = [346, 10]\nclass = [", fillcolor="#e6853f"] ;
45 -> 46 ;
47 [label="gini = 0.0\nsamples = 1\nvalue = [0, 1]\nclass = 0", fillcolor="#399de5"] ;
45 -> 47 ;
48 [label="SampEn <= 0.703\ngini = 0.121\nsamples = 16550\nvalue = [1073, 15477]\nclass = 0", fillcolor="#47a4e7"] ;
32 -> 48 ;
49 [label="STD <= 0.156\ngini = 0.267\nsamples = 4153\nvalue = [660, 3493]\nclass = 0", fillcolor="#5eb0ea"] ;
48 -> 49 ;
50 [label="StoS <= 0.063\ngini = 0.21\nsamples = 3800\nvalue = [454, 3346]\nclass = 0", fillcolor="#54aae9"] ;
49 -> 50 ;
51 [label="gini = 0.444\nsamples = 471\nvalue = [157, 314]\nclass = 0", fillcolor="#9ccef2"] ;
50 -> 51 ;
52 [label="gini = 0.163\nsamples = 3329\nvalue = [297, 3032]\nclass = 0", fillcolor="#4ca7e8"] ;
50 -> 52 ;
53 [label="RtoR <= 0.479\ngini = 0.486\nsamples = 353\nvalue = [206, 147]\nclass = [", fillcolor="#f8dbc6"] ;
49 -> 53 ;
54 [label="gini = 0.482\nsamples = 198\nvalue = [80, 118]\nclass = 0", fillcolor="#bfdff7"] ;
53 -> 54 ;
55 [label="gini = 0.304\nsamples = 155\nvalue = [126, 29]\nclass = [", fillcolor="#eb9e67"] ;
53 -> 55 ;
56 [label="CoefVar <= 0.346\ngini = 0.064\nsamples = 12397\nvalue = [413, 11984]\nclass = 0", fillcolor="#40a0e6"] ;
48 -> 56 ;
57 [label="AppEn <= 0.761\ngini = 0.056\nsamples = 12216\nvalue = [350, 11866]\nclass = 0", fillcolor="#3fa0e6"] ;
56 -> 57 ;
58 [label="gini = 0.13\nsamples = 3040\nvalue = [212, 2828]\nclass = 0", fillcolor="#48a4e7"] ;
57 -> 58 ;
59 [label="gini = 0.03\nsamples = 9176\nvalue = [138, 9038]\nclass = 0", fillcolor="#3c9ee5"] ;
57 -> 59 ;
60 [label="Range <= 1.102\ngini = 0.454\nsamples = 181\nvalue = [63, 118]\nclass = 0", fillcolor="#a3d1f3"] ;
56 -> 60 ;
61 [label="gini = 0.5\nsamples = 117\nvalue = [58, 59]\nclass = 0", fillcolor="#fcfdff"] ;
60 -> 61 ;
62 [label="gini = 0.144\nsamples = 64\nvalue = [5, 59]\nclass = 0", fillcolor="#4aa5e7"] ;
60 -> 62 ;
}